{
  "model_name": "WattWise LSTM Prototype",
  "model_version": "LSTM UMKM v0.1",
  "source_model_path": "ML/outputs_lstm/lstm_model.keras",
  "exported_at": "2026-07-04T19:47:30+00:00",
  "sequence_length": 6,
  "feature_order": [
    "latest_usage_kwh",
    "previous_usage_kwh",
    "avg_3_month_usage_kwh",
    "avg_6_month_usage_kwh",
    "trend_1_month",
    "trend_3_month",
    "month_sin",
    "month_cos",
    "business_type_encoded",
    "avg_tariff_idr_per_kwh"
  ],
  "target_name": "next_month_usage_kwh",
  "business_type_encoding": {
    "LAUNDRY": 0,
    "FNB": 1,
    "RETAIL": 2,
    "MANUFACTURE": 3,
    "COLD_STORAGE": 4,
    "OTHER": 6
  },
  "input_scaler": {
    "mean": [
      989.7454454510606,
      1099.129423600818,
      1067.9480125053242,
      1141.4901148240904,
      0.4981699200365216,
      -0.004014080502384314,
      0.18470774679227794,
      -0.017639586520203795,
      2.883337592639918,
      1444.7000000000003
    ],
    "scale": [
      806.668014485839,
      1979.2125071600235,
      1439.1736498693529,
      2424.203633988022,
      38.58435606064674,
      0.125284414913324,
      0.726888626871563,
      0.6612146530341637,
      1.9955383156406474,
      1.0
    ]
  },
  "target_scaler": {
    "mean": [
      978.0742289675442
    ],
    "scale": [
      771.1737198773984
    ]
  },
  "layers": {
    "lstm": {
      "units": 32,
      "activation": "tanh",
      "recurrent_activation": "sigmoid",
      "gate_order": [
        "input",
        "forget",
        "cell",
        "output"
      ],
      "kernel": [
        [
          0.17779386043548584,
          0.13041360676288605,
          -0.032461684197187424,
          0.24988232553005219,
          -0.15689004957675934,
          0.12004565447568893,
          0.17201478779315948,
          -0.13045932352542877,
          0.028434187173843384,
          0.04298434033989906,
          -0.1678353101015091,
          -0.08000685274600983,
          0.16294412314891815,
          0.02016020193696022,
          -0.06170311197638512,
          0.09125667810440063,
          -0.2301589697599411,
          -0.08678595721721649,
          0.007733103819191456,
          -0.18038390576839447,
          -0.1742047220468521,
          0.168011873960495,
          0.17649927735328674,
          -0.11714108288288116,
          0.10305466502904892,
          -0.18045642971992493,
          0.030735641717910767,
          0.06729691475629807,
          0.0016951912548393011,
          -0.057607896625995636,
          -0.1348927766084671,
          0.25984370708465576,
          -0.11046048998832703,
          0.048367515206336975,
          -0.05322019383311272,
          -0.10694470256567001,
          0.11183015257120132,
          -0.07402860373258591,
          0.06674428284168243,
          0.06527341157197952,
          -0.2027806043624878,
          0.03312499076128006,
          -0.10249947756528854,
          -0.09009501338005066,
          0.1560429483652115,
          0.007722828537225723,
          -0.026854101568460464,
          -0.12591427564620972,
          -0.17499390244483948,
          0.11137941479682922,
          0.06428641080856323,
          0.005122306291013956,
          -0.17640425264835358,
          -0.14145156741142273,
          0.13423612713813782,
          0.16942530870437622,
          -0.05961635336279869,
          -0.10441510379314423,
          -0.13096623122692108,
          -0.10468852519989014,
          0.10295165330171585,
          0.22024326026439667,
          -0.05156182870268822,
          0.1258133500814438,
          -0.15312665700912476,
          0.03728388249874115,
          -0.06911687552928925,
          -0.06857183575630188,
          0.21150308847427368,
          0.18832145631313324,
          0.15491709113121033,
          0.19015680253505707,
          0.0817025676369667,
          -0.1780022233724594,
          0.052178021520376205,
          -0.2493969053030014,
          0.2623963952064514,
          0.029614832252264023,
          -0.024194877594709396,
          -0.19127781689167023,
          -0.14705461263656616,
          0.22708740830421448,
          -0.26087501645088196,
          -0.010414255782961845,
          -0.15295414626598358,
          -0.09276855736970901,
          0.24517343938350677,
          0.10579773783683777,
          0.16752274334430695,
          0.0851638913154602,
          0.06658849120140076,
          0.08697295933961868,
          -0.06334108114242554,
          -0.13851821422576904,
          0.22214354574680328,
          -0.05561017990112305,
          0.2071896493434906,
          0.2089061141014099,
          -0.009181639179587364,
          -0.09734611958265305,
          0.21314136683940887,
          0.2130657583475113,
          0.04100925102829933,
          -0.11849168688058853,
          -0.11139049381017685,
          0.16493487358093262,
          -0.17915040254592896,
          -0.11115171760320663,
          0.14150837063789368,
          0.03487156331539154,
          -0.19203104078769684,
          0.05341098830103874,
          -0.029918543994426727,
          0.20875298976898193,
          0.05866701155900955,
          -0.05838342383503914,
          0.17178817093372345,
          -0.13579924404621124,
          -0.08883354067802429,
          -0.09732766449451447,
          -0.013902926817536354,
          -0.1861410290002823,
          -0.11868055164813995,
          0.25393980741500854,
          0.13511040806770325,
          0.00783503707498312,
          0.1376764327287674,
          -0.08920001238584518
        ],
        [
          0.07722371816635132,
          -0.09174937754869461,
          0.1518191248178482,
          -0.05951575189828873,
          0.06560704112052917,
          0.11026986688375473,
          -0.1030164510011673,
          -0.15790846943855286,
          0.0538492351770401,
          0.09515111893415451,
          0.18452958762645721,
          -0.16712191700935364,
          -0.19707487523555756,
          -0.10211019963026047,
          -0.02951253205537796,
          0.14204154908657074,
          0.10455663502216339,
          0.0774681568145752,
          0.010017714463174343,
          0.21347478032112122,
          -0.06508728116750717,
          -0.03753412887454033,
          0.028635160997509956,
          0.1912970393896103,
          -0.18997932970523834,
          -0.05715577304363251,
          -0.05816202983260155,
          -0.09338502585887909,
          0.10184574127197266,
          -0.032120440155267715,
          0.12836584448814392,
          0.1862315684556961,
          0.08135337382555008,
          0.09262815117835999,
          -0.12999023497104645,
          0.21450959146022797,
          0.22030243277549744,
          -0.12611199915409088,
          0.1456141322851181,
          -0.011788671836256981,
          0.13309942185878754,
          -0.12429200112819672,
          -0.12387387454509735,
          -0.010342531837522984,
          -0.061751823872327805,
          0.01939358562231064,
          -0.12970378994941711,
          0.16195020079612732,
          -0.01926751807332039,
          -0.0962919294834137,
          0.11749289929866791,
          -0.18752197921276093,
          -0.017800964415073395,
          0.22165735065937042,
          -0.18156903982162476,
          -0.150392085313797,
          -0.11156982183456421,
          -0.04998013377189636,
          0.054225243628025055,
          -0.07149174064397812,
          -0.07336603850126266,
          -0.007739534135907888,
          0.031079083681106567,
          -0.1584143489599228,
          -0.08903893828392029,
          0.025555187836289406,
          0.18091070652008057,
          0.11060727387666702,
          -0.028323952108621597,
          0.047302596271038055,
          0.17452052235603333,
          0.06715738028287888,
          -0.18851719796657562,
          -0.04525112360715866,
          0.015923060476779938,
          0.024344172328710556,
          -0.07716799527406693,
          -0.1955524981021881,
          -0.23220181465148926,
          -0.10803402960300446,
          -0.03609049320220947,
          0.17311149835586548,
          -0.04833536967635155,
          -0.12412172555923462,
          -0.217971071600914,
          0.15658268332481384,
          -0.03232789412140846,
          -0.1812005639076233,
          0.13330838084220886,
          -0.06892847269773483,
          0.09988687187433243,
          -0.057341255247592926,
          -0.06694120913743973,
          -0.11172967404127121,
          0.1356644630432129,
          -0.1907830834388733,
          0.030956728383898735,
          -0.010522616095840931,
          0.08452212810516357,
          0.149467334151268,
          -0.011708855628967285,
          -0.042396221309900284,
          -0.07463044673204422,
          0.03195583075284958,
          0.1260022670030594,
          0.001052320934832096,
          0.08226169645786285,
          -0.1462530940771103,
          -0.13496819138526917,
          0.13776861131191254,
          -0.20051908493041992,
          0.06546194851398468,
          0.0717303529381752,
          -0.010462741367518902,
          0.074014812707901,
          0.19713623821735382,
          0.14946435391902924,
          0.1332424134016037,
          -0.021383466199040413,
          0.10491520166397095,
          0.13862957060337067,
          -0.1114763468503952,
          0.018878262490034103,
          0.11581117659807205,
          -0.0612986795604229,
          -0.08639906346797943,
          0.1590028554201126,
          0.24804691970348358
        ],
        [
          0.06625265628099442,
          -0.12342040985822678,
          0.12348055094480515,
          0.09590969979763031,
          -0.07874833047389984,
          0.04071943834424019,
          0.12579680979251862,
          0.028487738221883774,
          -0.16016995906829834,
          0.03929508849978447,
          -0.05320049449801445,
          0.02620786242187023,
          0.1468486785888672,
          -0.08014471083879471,
          -0.21541908383369446,
          0.09898997098207474,
          -0.07233233749866486,
          0.2449052929878235,
          0.1052880510687828,
          0.18848587572574615,
          -0.13976119458675385,
          0.160580575466156,
          0.062402546405792236,
          0.0053593460470438,
          -0.0004900244530290365,
          0.041574034839868546,
          0.16030898690223694,
          0.13823533058166504,
          -0.10807303339242935,
          0.13443467020988464,
          0.045100901275873184,
          0.06862860172986984,
          0.1331532597541809,
          0.03939704969525337,
          0.20034880936145782,
          0.021080033853650093,
          0.028832610696554184,
          -0.0496794655919075,
          0.07601609826087952,
          -0.03865278512239456,
          0.17324934899806976,
          0.10118764638900757,
          -0.22898295521736145,
          0.08878755569458008,
          0.03637407720088959,
          0.05752582848072052,
          0.005919760093092918,
          -0.07217099517583847,
          -0.17966143786907196,
          -0.14514191448688507,
          0.19174344837665558,
          0.17291563749313354,
          0.12496718764305115,
          -0.00280437502078712,
          0.04961375519633293,
          0.22678561508655548,
          0.08501466363668442,
          -0.005039936862885952,
          0.18264877796173096,
          0.2770366072654724,
          0.11425064504146576,
          0.0772504210472107,
          -0.07340524345636368,
          0.04025064408779144,
          -0.15156711637973785,
          0.04241787642240524,
          -0.13119934499263763,
          -0.048935454338788986,
          -0.11704607307910919,
          -0.03506579250097275,
          -0.07283265888690948,
          0.21408893167972565,
          0.14451800286769867,
          -0.18998481333255768,
          0.1862601339817047,
          -0.0908026173710823,
          0.0026107337325811386,
          -0.056367430835962296,
          -0.04862837865948677,
          0.054738856852054596,
          -0.17123214900493622,
          -0.05320942774415016,
          -0.22056223452091217,
          0.2042786329984665,
          0.0850551426410675,
          -0.03840545937418938,
          -0.028389932587742805,
          0.029392821714282036,
          -0.04843579977750778,
          0.11634006351232529,
          0.010454922914505005,
          0.18438366055488586,
          -0.1954580694437027,
          0.08871933817863464,
          0.04598839581012726,
          -0.07032959908246994,
          0.24578732252120972,
          0.03116094321012497,
          0.03531544655561447,
          -0.09545101970434189,
          -0.1721653938293457,
          0.11127132922410965,
          -0.16816917061805725,
          -0.1010507270693779,
          -0.009441155940294266,
          0.18625769019126892,
          0.09016063064336777,
          -0.14446008205413818,
          -0.14783687889575958,
          0.20856188237667084,
          -0.2559070885181427,
          0.1478201150894165,
          -0.1560114473104477,
          -0.016442347317934036,
          0.005658932961523533,
          0.004166205879300833,
          0.13594482839107513,
          0.08467064052820206,
          0.07183048874139786,
          -0.04264421388506889,
          -0.036198753863573074,
          -0.10296943038702011,
          -0.006282286252826452,
          0.203835129737854,
          -0.20656681060791016,
          0.19433467090129852,
          -0.10503045469522476,
          0.1453884094953537
        ],
        [
          0.06276873499155045,
          0.06990072876214981,
          -0.04301925376057625,
          -0.10089021921157837,
          0.141580268740654,
          0.12660881876945496,
          -0.11654465645551682,
          -0.011370806023478508,
          0.14173810184001923,
          0.02364899218082428,
          -0.0634765774011612,
          0.04188231751322746,
          0.06551796942949295,
          0.04443451017141342,
          0.11301850527524948,
          -0.14986005425453186,
          -0.1978871375322342,
          0.05130309239029884,
          -0.1621655821800232,
          -0.06335509568452835,
          0.19918546080589294,
          -0.013717208988964558,
          -0.1393783688545227,
          -0.15081803500652313,
          -0.033978432416915894,
          0.0539262555539608,
          0.16937889158725739,
          0.2829584777355194,
          -0.16043008863925934,
          -0.10249630361795425,
          0.015138605609536171,
          0.15695376694202423,
          0.03019481524825096,
          -0.10611984878778458,
          0.21644911170005798,
          -0.14215698838233948,
          0.0007250616909004748,
          0.06205539032816887,
          -0.08105290681123734,
          0.11263341456651688,
          -0.16034695506095886,
          -0.026859816163778305,
          0.13384027779102325,
          -0.2329130470752716,
          -0.12299862504005432,
          -0.14383164048194885,
          -0.21432676911354065,
          -0.17649751901626587,
          -0.05470971763134003,
          0.13100244104862213,
          -0.05848041921854019,
          -0.1686815321445465,
          0.09274061024188995,
          0.10162406414747238,
          -0.0005998348933644593,
          -0.12359391897916794,
          0.11512909829616547,
          -0.12006024271249771,
          0.2268722951412201,
          -0.1029389500617981,
          0.08437249809503555,
          0.2218746840953827,
          -0.014036455191671848,
          -0.1174125000834465,
          0.13616131246089935,
          -0.12079165875911713,
          -0.06590075045824051,
          0.009909735061228275,
          0.24951502680778503,
          0.10301757603883743,
          -0.10489802807569504,
          -0.09890010207891464,
          -0.2138349860906601,
          -0.17780980467796326,
          0.10024376213550568,
          0.10035142302513123,
          0.21161383390426636,
          -0.22399839758872986,
          -0.18352895975112915,
          -0.23716853559017181,
          -0.18076135218143463,
          0.08136121183633804,
          0.04513653367757797,
          0.1321329027414322,
          -0.12309566140174866,
          -0.1312095671892166,
          0.24551984667778015,
          -0.09493187814950943,
          0.08705107867717743,
          -0.08919373899698257,
          -0.11443763226270676,
          0.13722862303256989,
          -0.019670870155096054,
          -0.014150858856737614,
          0.163285493850708,
          -0.06065827235579491,
          -0.1390836536884308,
          0.22826330363750458,
          -0.16237442195415497,
          0.17952927947044373,
          0.04135487601161003,
          0.19880558550357819,
          0.05279765650629997,
          0.18487147986888885,
          -0.17972156405448914,
          0.19591805338859558,
          -0.007036400958895683,
          -0.10577405989170074,
          0.11686727404594421,
          0.18040090799331665,
          -0.06687657535076141,
          -0.11011724919080734,
          0.12395726889371872,
          -0.04942980408668518,
          0.04932454228401184,
          0.10250819474458694,
          -0.1690080165863037,
          0.198186993598938,
          -0.018298625946044922,
          0.056035831570625305,
          -0.15170803666114807,
          0.1854466050863266,
          0.17963063716888428,
          -0.09091503173112869,
          0.05268672853708267,
          0.2698672115802765,
          -0.10830734670162201,
          0.139878511428833
        ],
        [
          0.05293198302388191,
          0.1241464763879776,
          0.027236998081207275,
          0.14044369757175446,
          -0.19206054508686066,
          -0.16667073965072632,
          0.03370841220021248,
          0.05789169296622276,
          0.008803891949355602,
          -0.10542682558298111,
          0.18235793709754944,
          0.09791542589664459,
          -0.03837254270911217,
          0.0753946602344513,
          0.03897349536418915,
          0.15281768143177032,
          0.07942696660757065,
          -0.11020095646381378,
          0.10804693400859833,
          -0.0044563827104866505,
          -0.1101250872015953,
          -0.061471812427043915,
          0.1516222059726715,
          -0.11054270714521408,
          -0.006393774412572384,
          0.01034634467214346,
          0.03930237144231796,
          -0.05053927004337311,
          -0.23670649528503418,
          0.11658585071563721,
          -0.03364403918385506,
          -0.20460723340511322,
          -0.16370275616645813,
          0.011646825820207596,
          0.15521927177906036,
          0.12921449542045593,
          0.08186587691307068,
          -0.07746254652738571,
          -0.12121213972568512,
          -0.0696185752749443,
          -0.01898675039410591,
          -0.11901009827852249,
          -0.0918428972363472,
          0.030426207929849625,
          0.18610678613185883,
          0.11823731660842896,
          0.08788882195949554,
          0.00923950131982565,
          -0.036270592361688614,
          -0.1486949473619461,
          -0.22756780683994293,
          0.20142711699008942,
          -0.021792147308588028,
          0.00837961956858635,
          -0.04732927307486534,
          -0.19324025511741638,
          -0.15066450834274292,
          -0.13886286318302155,
          -0.06362468004226685,
          0.2159675508737564,
          0.1186159998178482,
          0.013039971701800823,
          0.1205410584807396,
          -0.15879762172698975,
          -0.02146141789853573,
          -0.10066670179367065,
          -0.1249362975358963,
          -0.2267092764377594,
          0.09469253569841385,
          -0.10885915905237198,
          0.004273117054253817,
          -0.057403963059186935,
          -0.1853111833333969,
          -0.09900310635566711,
          -0.12870416045188904,
          -0.032942723482847214,
          0.05855441838502884,
          -0.0777728483080864,
          0.2448994517326355,
          -0.14794503152370453,
          -0.11573410779237747,
          0.15194320678710938,
          -0.13327819108963013,
          0.135585755109787,
          0.12583844363689423,
          0.04596172273159027,
          -0.01139412447810173,
          0.050551027059555054,
          -0.14030081033706665,
          0.11206532269716263,
          0.08796868473291397,
          -0.029456205666065216,
          -0.04764913395047188,
          0.1258663386106491,
          -0.021267961710691452,
          -0.09487693756818771,
          -0.12763915956020355,
          -0.0812440812587738,
          -0.0851762592792511,
          -0.23214030265808105,
          -0.12360470741987228,
          0.13459213078022003,
          0.05989290028810501,
          -0.06706945598125458,
          0.13882596790790558,
          0.06939441710710526,
          0.10155453532934189,
          0.05851711332798004,
          0.14179864525794983,
          -0.1468537151813507,
          0.14224302768707275,
          -0.18124480545520782,
          0.11432655155658722,
          -0.006778483744710684,
          0.12447050958871841,
          -0.0676274374127388,
          -0.18634527921676636,
          0.17367491126060486,
          -0.12262492626905441,
          -0.11760510504245758,
          0.02227831818163395,
          0.1492769867181778,
          -0.14054986834526062,
          -0.06367897242307663,
          0.045767221599817276,
          0.04687109589576721,
          0.07480785995721817,
          0.042703695595264435
        ],
        [
          0.17862103879451752,
          0.10633435100317001,
          -0.16381709277629852,
          0.23245887458324432,
          0.18854856491088867,
          0.16519618034362793,
          0.13189586997032166,
          -0.06269990652799606,
          0.004750403575599194,
          -0.1771925985813141,
          -0.03470250964164734,
          -0.047585807740688324,
          -0.13434895873069763,
          0.16403760015964508,
          0.13260801136493683,
          -0.16513735055923462,
          -0.10874751210212708,
          -0.17799600958824158,
          -0.20224587619304657,
          -0.13747850060462952,
          0.17445231974124908,
          0.026033446192741394,
          -0.007199127227067947,
          -0.13815663754940033,
          -0.2565625011920929,
          -0.13043643534183502,
          -0.06913531571626663,
          -0.21078543365001678,
          -0.15446825325489044,
          -0.011221367865800858,
          -0.029091540724039078,
          -0.07326267659664154,
          -0.025766031816601753,
          -0.08528515696525574,
          0.16428953409194946,
          0.1661597490310669,
          -0.08902187645435333,
          -0.0706469714641571,
          -0.14088009297847748,
          -0.2535671293735504,
          0.023574594408273697,
          -0.04168451949954033,
          0.05557789281010628,
          -0.19182944297790527,
          -0.21260246634483337,
          -0.041560783982276917,
          0.1587386131286621,
          -0.0730837881565094,
          0.20228655636310577,
          0.08526374399662018,
          -0.1385405957698822,
          -0.05974285677075386,
          -0.03402248024940491,
          -0.11989159137010574,
          0.18368728458881378,
          0.08153655380010605,
          0.10119765251874924,
          -0.0870555117726326,
          -0.14179012179374695,
          -0.05117205157876015,
          -0.11967112123966217,
          0.14531975984573364,
          0.06672991812229156,
          -0.13029253482818604,
          -0.042288754135370255,
          -0.08734729140996933,
          0.08449837565422058,
          0.1442861557006836,
          0.11411198228597641,
          0.20199653506278992,
          -0.04656287655234337,
          0.07120472192764282,
          -0.1609470546245575,
          -0.19510595500469208,
          0.04729320481419563,
          0.12445615231990814,
          0.0661461129784584,
          0.07815320044755936,
          0.09531465917825699,
          0.09968533366918564,
          0.21738691627979279,
          -0.016270294785499573,
          -0.004586454015225172,
          -0.0918954536318779,
          0.09304602444171906,
          0.009990256279706955,
          -0.15383648872375488,
          0.020979328081011772,
          0.11658491939306259,
          -0.030710086226463318,
          0.051703814417123795,
          0.12641258537769318,
          -0.12971973419189453,
          -0.06580664217472076,
          -0.06816621869802475,
          0.08554790914058685,
          -0.07247504591941833,
          0.07774875313043594,
          0.2632778584957123,
          0.16381330788135529,
          0.03947005793452263,
          -0.14150524139404297,
          0.19777265191078186,
          0.20400482416152954,
          0.108728788793087,
          -0.07049031555652618,
          0.02090524323284626,
          -0.10177759826183319,
          -0.2030182033777237,
          0.12119811028242111,
          0.029290873557329178,
          0.05849805846810341,
          -0.05185989663004875,
          0.09722137451171875,
          0.08693216741085052,
          0.07793324440717697,
          -0.1941206157207489,
          -0.06309358775615692,
          0.0912720188498497,
          0.17046314477920532,
          -0.06323694437742233,
          0.1637069284915924,
          0.07863840460777283,
          0.0450984388589859,
          0.09269417822360992,
          0.056177981197834015,
          -0.11082039773464203,
          -0.08507580310106277
        ],
        [
          0.11806781589984894,
          0.16405408084392548,
          0.07497630268335342,
          0.15364602208137512,
          0.103721022605896,
          -0.12901946902275085,
          -0.026183579117059708,
          -0.13360096514225006,
          -0.11235145479440689,
          0.09138412028551102,
          -0.10234993696212769,
          0.16535525023937225,
          -0.1094197928905487,
          0.12442415952682495,
          -0.13205306231975555,
          -0.06580986082553864,
          -0.14601802825927734,
          0.238713338971138,
          -0.1464780867099762,
          0.06225576996803284,
          0.005517085548490286,
          0.12503516674041748,
          0.10638054460287094,
          -0.08249109238386154,
          -0.16699552536010742,
          0.0653957724571228,
          -0.07341016083955765,
          0.12797316908836365,
          0.14926952123641968,
          -0.06205311417579651,
          -0.13013319671154022,
          0.013855320401489735,
          0.12112761288881302,
          -0.053764332085847855,
          -0.1081189215183258,
          -0.02002931386232376,
          -0.2215527892112732,
          -0.036070771515369415,
          -0.1775517612695694,
          0.16640539467334747,
          0.05451136827468872,
          0.038800716400146484,
          -0.021230632439255714,
          0.08200690150260925,
          -0.0035367493983358145,
          -0.17950792610645294,
          -0.18028217554092407,
          0.10878347605466843,
          -0.0920134112238884,
          0.001632650732062757,
          0.002704242942854762,
          -0.01874537393450737,
          -0.08273085206747055,
          0.09313949942588806,
          -0.0237642303109169,
          -0.15119093656539917,
          0.19087322056293488,
          -0.14784902334213257,
          0.1713559329509735,
          -0.03283336013555527,
          -0.10629437863826752,
          0.156974658370018,
          -0.04156995564699173,
          0.008626235648989677,
          -0.07720647007226944,
          0.04968200996518135,
          0.06683935970067978,
          0.057607829570770264,
          -0.10678702592849731,
          0.02035130001604557,
          -0.04306044057011604,
          0.09667959064245224,
          -0.0602063424885273,
          -0.09651582688093185,
          0.0935296043753624,
          0.008351100608706474,
          0.011919036507606506,
          0.023801377043128014,
          0.10269346088171005,
          -0.15316727757453918,
          -0.06755221635103226,
          -0.06441567838191986,
          0.10201180726289749,
          0.14440222084522247,
          -0.010635078884661198,
          0.013692108914256096,
          -0.13365063071250916,
          0.15914185345172882,
          0.07627370208501816,
          0.0799240842461586,
          0.019030418246984482,
          -0.18571527302265167,
          0.029155272990465164,
          0.04464784637093544,
          -0.036200955510139465,
          0.20572826266288757,
          -0.10453091561794281,
          0.01620759628713131,
          -0.07835040241479874,
          -0.073499396443367,
          0.026457756757736206,
          0.046913664788007736,
          0.05101668834686279,
          -0.13816122710704803,
          0.1594923436641693,
          -0.11500789225101471,
          -0.051451344043016434,
          -0.055955905467271805,
          0.05397339537739754,
          -0.031122131273150444,
          -0.04656045511364937,
          0.13352937996387482,
          -0.09813068807125092,
          0.1032833456993103,
          -0.1568278968334198,
          -0.012622900307178497,
          -0.06351540237665176,
          -0.09416363388299942,
          -0.13275475800037384,
          -0.1825135201215744,
          0.13127969205379486,
          0.1883525550365448,
          0.19390062987804413,
          0.08990403264760971,
          -0.1135709285736084,
          0.1135479062795639,
          0.004633673001080751,
          -0.01393843349069357
        ],
        [
          0.15652355551719666,
          -0.1252356618642807,
          0.015299583785235882,
          0.17834459245204926,
          -0.1012437492609024,
          -0.19641833007335663,
          -0.20466476678848267,
          -0.10970094799995422,
          0.026497656479477882,
          -0.07681583613157272,
          -0.1474199742078781,
          0.02274176850914955,
          0.131802499294281,
          -0.16747650504112244,
          -0.12997083365917206,
          0.1596551090478897,
          -0.17819710075855255,
          -0.13612723350524902,
          0.22575229406356812,
          -0.1690860241651535,
          0.05613189935684204,
          -0.17491772770881653,
          -0.19002830982208252,
          0.13463787734508514,
          -0.003952758386731148,
          -0.14445210993289948,
          0.08796363323926926,
          0.19986742734909058,
          0.01943543180823326,
          0.01669095829129219,
          -0.13005773723125458,
          -0.10014918446540833,
          -0.03612716868519783,
          -0.010737779550254345,
          0.06643415242433548,
          0.14122073352336884,
          -0.11235018819570541,
          -0.20114943385124207,
          0.06385675817728043,
          0.1744702160358429,
          -0.13319800794124603,
          -0.08306519687175751,
          -0.1221296563744545,
          0.10521113127470016,
          0.25353506207466125,
          0.07846487313508987,
          -0.05580338463187218,
          -0.1681566834449768,
          -0.0262997318059206,
          0.006491923704743385,
          0.011512826196849346,
          -0.12909920513629913,
          0.19351309537887573,
          0.20067398250102997,
          0.05100236460566521,
          -0.20322728157043457,
          0.011099142022430897,
          0.0310278981924057,
          0.12109901756048203,
          -0.0375266894698143,
          0.05378637835383415,
          -0.029924623668193817,
          0.11288589239120483,
          0.20260223746299744,
          0.1440829485654831,
          0.20485898852348328,
          -0.10426229983568192,
          0.1616128385066986,
          -0.038101982325315475,
          -0.0675087422132492,
          -0.09239574521780014,
          0.16175997257232666,
          -0.1700621247291565,
          0.09331580251455307,
          0.03988682106137276,
          0.09708988666534424,
          0.10807536542415619,
          -0.09608077257871628,
          0.15768297016620636,
          0.09089121967554092,
          0.1101025640964508,
          -0.11955062299966812,
          -0.17897219955921173,
          0.03809261694550514,
          0.07809716463088989,
          -0.1354931741952896,
          0.11544293165206909,
          0.1635552942752838,
          -0.03988555073738098,
          -0.126915842294693,
          -0.1262856423854828,
          -0.011596053838729858,
          0.07129736989736557,
          0.16650301218032837,
          -0.09937813133001328,
          0.09421149641275406,
          -0.20222611725330353,
          -0.19749394059181213,
          0.12906646728515625,
          -0.01473830733448267,
          0.1807626634836197,
          0.08651866763830185,
          -0.07642531394958496,
          -0.1974487006664276,
          -0.05152898281812668,
          0.15708711743354797,
          0.09647855162620544,
          0.12209011614322662,
          -0.08765275776386261,
          -0.18797960877418518,
          0.03137423098087311,
          0.06524655967950821,
          -0.1271328181028366,
          -0.06237492710351944,
          0.1501370519399643,
          -0.16960281133651733,
          -0.02939855307340622,
          0.03272072970867157,
          0.039089493453502655,
          0.05920839682221413,
          -0.02630920521914959,
          -0.1562790423631668,
          0.17656952142715454,
          -0.05626574158668518,
          0.011050415225327015,
          0.0478341318666935,
          -0.1171385645866394,
          0.0011172269005328417
        ],
        [
          -0.041614629328250885,
          0.18920062482357025,
          -0.04110700264573097,
          0.13505171239376068,
          0.18639294803142548,
          0.0316321887075901,
          -0.16498161852359772,
          0.11738589406013489,
          -0.059287477284669876,
          0.10434963554143906,
          0.04209528863430023,
          -0.04989006370306015,
          0.04794707149267197,
          0.0685804933309555,
          0.16477352380752563,
          -0.10991925001144409,
          0.11714368313550949,
          -0.04631367325782776,
          0.06801321357488632,
          0.0221654511988163,
          0.18077971041202545,
          -0.0421551950275898,
          0.10469616204500198,
          -0.13811588287353516,
          -0.07497572898864746,
          0.034253668040037155,
          -0.14850521087646484,
          0.13927090167999268,
          -0.14197254180908203,
          -0.03335608169436455,
          0.1131758913397789,
          -0.0495680496096611,
          0.07839402556419373,
          0.05923949182033539,
          0.09303154051303864,
          -0.04333048313856125,
          -0.02307642437517643,
          0.06431469321250916,
          0.05508822202682495,
          -0.12966178357601166,
          -0.003428361378610134,
          -0.1169903427362442,
          0.14590691030025482,
          -0.09566697478294373,
          -0.11683265119791031,
          0.014319993555545807,
          0.0891515240073204,
          -0.023990418761968613,
          0.16927365958690643,
          -0.13076159358024597,
          0.050412677228450775,
          -0.044926926493644714,
          -0.17263291776180267,
          0.036002058535814285,
          0.22156906127929688,
          -0.07080821692943573,
          0.20510204136371613,
          0.12636490166187286,
          -0.043321672827005386,
          0.06921602785587311,
          0.02082386240363121,
          0.0179274994879961,
          -0.12637276947498322,
          0.14185775816440582,
          -0.0670960322022438,
          -0.1545461267232895,
          0.15090081095695496,
          -0.028009673580527306,
          0.14374564588069916,
          0.18517519533634186,
          0.09355366230010986,
          0.11598643660545349,
          -0.03869682177901268,
          -0.021823128685355186,
          -0.11131736636161804,
          -0.04407035931944847,
          -0.03017781861126423,
          -0.16593752801418304,
          -0.04803287610411644,
          0.1674160361289978,
          -0.07996267825365067,
          -0.09050840884447098,
          -0.07173112034797668,
          0.129646435379982,
          0.1522606909275055,
          -0.015114082023501396,
          -0.11236709356307983,
          0.028942665085196495,
          0.04994747042655945,
          -0.08537061512470245,
          -0.08799077570438385,
          -0.1159578487277031,
          0.131644606590271,
          0.008259342983365059,
          -0.09018877893686295,
          0.20296230912208557,
          -0.06797119230031967,
          0.043972261250019073,
          -0.23379682004451752,
          -0.057251859456300735,
          -0.03309325873851776,
          0.16188472509384155,
          -0.08933725953102112,
          0.156487837433815,
          -0.1624165177345276,
          -0.031381431967020035,
          0.16163748502731323,
          -0.12220125645399094,
          -0.14185991883277893,
          -0.08442087471485138,
          -0.1442154049873352,
          0.09514820575714111,
          0.18502986431121826,
          -0.024545172229409218,
          -0.029339304193854332,
          -0.17168866097927094,
          0.1418546587228775,
          0.17197106778621674,
          0.1999915987253189,
          0.018458889797329903,
          -0.0006769307074137032,
          0.19406507909297943,
          -0.04310943931341171,
          0.269443541765213,
          -0.1283397376537323,
          0.10903476923704147,
          -0.10788601636886597,
          -0.12148983031511307
        ],
        [
          0.08854405581951141,
          -0.09452912211418152,
          0.09757225215435028,
          -0.04377809166908264,
          -0.07432159781455994,
          0.042639508843421936,
          -0.06621155142784119,
          0.16795136034488678,
          0.043753787875175476,
          0.051738932728767395,
          0.057963356375694275,
          0.13520000874996185,
          0.12086863815784454,
          -0.01942005753517151,
          -0.08030091226100922,
          -0.05474652349948883,
          -0.016093119978904724,
          -0.06482742726802826,
          0.019475191831588745,
          0.1643310934305191,
          0.18602292239665985,
          0.17758886516094208,
          0.12214355170726776,
          0.12135498225688934,
          -0.12302621454000473,
          0.18395771086215973,
          -0.0514712929725647,
          0.04955701529979706,
          0.13632626831531525,
          0.03587673604488373,
          0.12225790321826935,
          -0.12604159116744995,
          -0.0755506157875061,
          -0.177640900015831,
          0.02372397482395172,
          0.017974436283111572,
          -0.04201419651508331,
          -0.14940744638442993,
          -0.07146485149860382,
          -0.19177545607089996,
          0.12760429084300995,
          -0.19010064005851746,
          -0.12106501311063766,
          -0.11187205463647842,
          -0.06305080652236938,
          0.04052765667438507,
          -0.06779906153678894,
          0.07269208133220673,
          -0.18753179907798767,
          0.17134208977222443,
          0.19498299062252045,
          0.17315365374088287,
          0.07434432208538055,
          0.010501772165298462,
          -0.1752537488937378,
          -0.07593147456645966,
          -0.016974106431007385,
          0.11634509265422821,
          0.1807829588651657,
          0.09854693710803986,
          -0.02760283648967743,
          -0.07151451706886292,
          0.06821154057979584,
          0.04544787108898163,
          0.08027814328670502,
          -0.08774743229150772,
          0.002862021327018738,
          0.070609912276268,
          -0.02106325328350067,
          -0.0737437754869461,
          0.18727527558803558,
          0.018353059887886047,
          0.12615399062633514,
          -0.08467044681310654,
          -0.17927971482276917,
          0.20296378433704376,
          -0.08016708493232727,
          0.08587004244327545,
          0.09661959111690521,
          -0.05646756291389465,
          -0.03231187164783478,
          0.10083241760730743,
          0.15984179079532623,
          -0.041317060589790344,
          0.03749731183052063,
          -0.05679348111152649,
          0.03712451457977295,
          0.1796543151140213,
          0.080675408244133,
          0.08265407383441925,
          0.04956744611263275,
          -0.10561935603618622,
          -0.09370920062065125,
          0.12389440834522247,
          -0.08401477336883545,
          0.04435516893863678,
          -0.026388540863990784,
          -0.07208140194416046,
          -0.04914692044258118,
          -0.11041349917650223,
          0.04831154644489288,
          0.0977133959531784,
          0.11571143567562103,
          0.06249777972698212,
          -0.08091363310813904,
          0.01113864779472351,
          -0.06464910507202148,
          -0.1670749932527542,
          0.13939784467220306,
          -0.16753658652305603,
          0.18558336794376373,
          0.1334753781557083,
          0.10719279944896698,
          0.025651872158050537,
          -0.014858737587928772,
          -0.08766729384660721,
          0.02124425768852234,
          -0.12357460707426071,
          0.199462428689003,
          -0.14246581494808197,
          0.033326029777526855,
          -0.06468385457992554,
          0.10970781743526459,
          0.181233212351799,
          -0.16727519035339355,
          0.1428232043981552,
          0.18721120059490204,
          -0.07706484198570251
        ]
      ],
      "kernel_shape": [
        10,
        128
      ],
      "recurrent_kernel": [
        [
          -0.036317627876996994,
          -0.077610544860363,
          -0.0729081928730011,
          0.09122428297996521,
          0.09874804317951202,
          0.14904724061489105,
          -0.14345353841781616,
          0.20427994430065155,
          -0.006179650314152241,
          0.02650240994989872,
          0.13892357051372528,
          0.0577780157327652,
          -0.009790884330868721,
          0.09508528560400009,
          0.048569004982709885,
          0.04258636012673378,
          0.08216412365436554,
          0.031050266698002815,
          0.04918314889073372,
          -0.05838930234313011,
          5.530288035515696e-05,
          0.05305885151028633,
          0.16593582928180695,
          0.08785790205001831,
          0.06650906801223755,
          0.025559425354003906,
          0.0462711863219738,
          -0.04216573387384415,
          0.09914632141590118,
          -0.12306755036115646,
          -0.030068205669522285,
          0.06641305983066559,
          -0.11730729788541794,
          0.01829427108168602,
          -0.010351967997848988,
          -0.18209415674209595,
          0.05776636675000191,
          0.0887281596660614,
          0.15594343841075897,
          0.10519259423017502,
          0.11866006255149841,
          0.009020424447953701,
          0.0853627622127533,
          0.03667128458619118,
          0.08196480572223663,
          -0.08121675997972488,
          -0.07446189969778061,
          0.09301790595054626,
          0.10897272080183029,
          -0.04674571007490158,
          0.13859805464744568,
          0.056333497166633606,
          0.09886928647756577,
          0.05560668557882309,
          -0.06102553755044937,
          -0.07219042629003525,
          0.13885657489299774,
          0.03911086171865463,
          -0.008731785230338573,
          -0.2200659066438675,
          0.024024944752454758,
          -0.08083133399486542,
          -0.03447604924440384,
          -0.2332962602376938,
          -0.014133436605334282,
          0.0033320437651127577,
          0.1370101422071457,
          -0.027691759169101715,
          -0.012551233172416687,
          -0.10129527747631073,
          -0.01496180146932602,
          -0.08472415059804916,
          0.04560576006770134,
          -0.17886221408843994,
          0.03556590899825096,
          -0.12358912825584412,
          -0.05777275562286377,
          0.07167226821184158,
          -0.00796965416520834,
          0.09699830412864685,
          0.05469617620110512,
          -0.05792270600795746,
          -0.11524000763893127,
          -0.1839212328195572,
          -0.08249043673276901,
          -0.025141417980194092,
          0.10596637427806854,
          0.03149312362074852,
          0.010055383667349815,
          -0.06030392274260521,
          -0.008433373644948006,
          -0.0762108862400055,
          0.11078327894210815,
          -0.055853281170129776,
          -0.002392180496826768,
          0.023881960660219193,
          -0.12127278745174408,
          -0.09451621770858765,
          0.09726305305957794,
          -0.0663580372929573,
          0.024530086666345596,
          -0.10426962375640869,
          0.095852792263031,
          0.05935834348201752,
          0.0104173319414258,
          -0.012985405512154102,
          -0.02026563324034214,
          0.09015896171331406,
          0.01995711959898472,
          0.053455740213394165,
          0.07924120128154755,
          -0.06970866024494171,
          -0.18594880402088165,
          -0.15179036557674408,
          0.05115785449743271,
          0.03699418157339096,
          0.07810985296964645,
          -0.02253612130880356,
          -0.11579073965549469,
          -0.17438270151615143,
          -0.04143853113055229,
          0.09693824499845505,
          0.058777809143066406,
          -0.16226184368133545,
          0.03065766766667366,
          -0.028216233476996422,
          -0.0900069996714592,
          0.1625654101371765
        ],
        [
          -0.009887714870274067,
          0.03115995042026043,
          0.0016258795512840152,
          -0.00034495769068598747,
          -0.11540459841489792,
          -0.08322667330503464,
          -0.09784381091594696,
          0.11364121735095978,
          -0.009228810667991638,
          -0.02294253185391426,
          0.024403104558587074,
          -0.15059378743171692,
          0.07832799106836319,
          0.17234642803668976,
          -0.08138870447874069,
          -0.08388135582208633,
          -0.13000606000423431,
          0.09243039786815643,
          0.057659000158309937,
          -0.08075543493032455,
          0.18447205424308777,
          0.11676383763551712,
          -0.03754718601703644,
          -0.08248097449541092,
          0.00739553477615118,
          -0.011189724318683147,
          -0.16266989707946777,
          0.12876978516578674,
          0.18230444192886353,
          -0.15220457315444946,
          0.08607596904039383,
          0.06105022504925728,
          -0.0736486092209816,
          0.021754473447799683,
          -0.0909334346652031,
          0.025622671470046043,
          -0.15236862003803253,
          0.006144242826849222,
          -0.05043892189860344,
          0.038466259837150574,
          0.1707880049943924,
          0.23174436390399933,
          0.13897265493869781,
          0.042986731976270676,
          0.06694921106100082,
          -0.15915153920650482,
          -0.1681465208530426,
          -0.0697421282529831,
          -0.05610411614179611,
          0.016842182725667953,
          -0.02664056047797203,
          0.011042575351893902,
          -0.012053987942636013,
          0.04285229742527008,
          -0.13192994892597198,
          0.08633237332105637,
          -0.06933844089508057,
          -0.06899920105934143,
          -0.10041157156229019,
          -0.12412877380847931,
          0.03375410661101341,
          0.06109756603837013,
          0.023034611716866493,
          -0.17504428327083588,
          -0.05564374849200249,
          0.03360762819647789,
          -0.016066381707787514,
          -0.013499418273568153,
          0.16077062487602234,
          -0.06112762913107872,
          0.08000558614730835,
          -0.11837310343980789,
          -0.07195974141359329,
          0.025345418602228165,
          -0.05518745258450508,
          -0.0532924085855484,
          -0.041263069957494736,
          -0.14301367104053497,
          -0.1434306800365448,
          0.06874822080135345,
          -0.02637367881834507,
          0.07605192065238953,
          0.04730217531323433,
          -0.09408608078956604,
          0.07307181507349014,
          -0.04554251953959465,
          0.13679896295070648,
          0.09405319392681122,
          0.12363896518945694,
          -0.05499471351504326,
          0.003413011785596609,
          0.19273974001407623,
          -0.23071952164173126,
          -0.06855907291173935,
          0.05710519850254059,
          -0.02000303566455841,
          -0.06150997802615166,
          0.14552220702171326,
          0.03626716881990433,
          -0.046290323138237,
          0.004975784104317427,
          0.2850465476512909,
          0.030750799924135208,
          -0.09329161792993546,
          -0.09521999955177307,
          -0.033845335245132446,
          -0.03833245113492012,
          -0.08333829045295715,
          0.050083767622709274,
          -0.005169645417481661,
          -0.09535671025514603,
          -0.033269524574279785,
          -0.11863154172897339,
          0.1488744467496872,
          0.18858882784843445,
          0.017632897943258286,
          0.11711890250444412,
          0.05472588539123535,
          0.004265820141881704,
          0.1196998730301857,
          -0.1291879564523697,
          0.05116787552833557,
          -0.027169059962034225,
          -0.12454216927289963,
          -0.04442193731665611,
          -0.027965040877461433,
          -0.09036902338266373,
          -0.03935334086418152
        ],
        [
          -0.0565231591463089,
          0.05062007158994675,
          0.07954710721969604,
          -0.11995600163936615,
          0.028170738369226456,
          -0.06376416981220245,
          -0.05370449274778366,
          -0.13802669942378998,
          0.054839812219142914,
          -0.16110365092754364,
          0.031939975917339325,
          0.15344104170799255,
          -0.1869681030511856,
          -0.22176547348499298,
          -0.07652390003204346,
          -0.2305012196302414,
          -0.1579604595899582,
          0.04849669709801674,
          0.010693476535379887,
          -0.16166149079799652,
          -0.056564245373010635,
          -0.1293444037437439,
          -0.07037424296140671,
          0.011378329247236252,
          0.09205009043216705,
          -0.08431492000818253,
          -0.11548306047916412,
          0.11146420985460281,
          0.06269858777523041,
          0.0154289985075593,
          -0.012849702499806881,
          -0.08733992278575897,
          -0.09175043553113937,
          -0.1750139445066452,
          -0.015533783473074436,
          -0.17595471441745758,
          0.028735283762216568,
          0.015494019724428654,
          0.09884084761142731,
          -0.03692089393734932,
          -0.07533504068851471,
          -0.18744857609272003,
          -0.03466195985674858,
          0.07271602004766464,
          -0.016176212579011917,
          -0.10951535403728485,
          -0.057015594094991684,
          0.05083553493022919,
          0.10778053849935532,
          -0.04525177180767059,
          -0.06711728870868683,
          0.06327793002128601,
          -0.00038669974310323596,
          0.04576155170798302,
          0.20553065836429596,
          0.1886669546365738,
          0.12032119929790497,
          -0.01177635695785284,
          -0.01675764098763466,
          -0.1349649876356125,
          -0.0378686860203743,
          0.04696713760495186,
          -0.1290845423936844,
          -0.01785234548151493,
          0.18123400211334229,
          0.09721498936414719,
          -0.13064339756965637,
          -0.09147197753190994,
          -0.18136589229106903,
          -0.11599501222372055,
          -0.02027309127151966,
          -0.015846149995923042,
          -0.018761325627565384,
          -0.061802688986063004,
          0.19461116194725037,
          -0.012801642529666424,
          -0.06363362073898315,
          -0.08990137279033661,
          0.2195846438407898,
          -0.08316362649202347,
          0.1511830985546112,
          -0.15343275666236877,
          0.07193285971879959,
          -0.020296093076467514,
          0.0129789924249053,
          -0.052053119987249374,
          -0.12332447618246078,
          0.03594432771205902,
          -0.07183469831943512,
          -0.07051503658294678,
          0.1393422782421112,
          -0.007733459584414959,
          0.11277017742395401,
          0.1481156349182129,
          -0.12144696712493896,
          0.05927423760294914,
          -0.14494916796684265,
          0.13588573038578033,
          -0.08795058727264404,
          -0.02411664091050625,
          -0.1242285743355751,
          -0.025120282545685768,
          0.011351932771503925,
          0.0783269926905632,
          -0.015178343281149864,
          -0.0398113988339901,
          -0.03501296788454056,
          -0.03397461399435997,
          -0.0671297237277031,
          -0.060761332511901855,
          0.02428249828517437,
          -0.016957664862275124,
          0.14152520895004272,
          0.01227964274585247,
          0.0684792771935463,
          0.16192860901355743,
          0.019141051918268204,
          -0.0771021842956543,
          -0.09659048914909363,
          -0.05659318342804909,
          0.11785727739334106,
          -0.03814183175563812,
          0.04069199413061142,
          0.1049831435084343,
          0.01040133461356163,
          0.07501865178346634,
          0.03344675526022911,
          -0.06706782430410385
        ],
        [
          -0.022991808131337166,
          0.12451960891485214,
          -0.03270971402525902,
          0.05035984516143799,
          -0.15387725830078125,
          -0.10790754109621048,
          0.07920437306165695,
          -0.09966930747032166,
          -0.15915603935718536,
          -0.09842611104249954,
          0.12892445921897888,
          -0.1110483855009079,
          0.12620168924331665,
          -0.06545104831457138,
          -0.035682227462530136,
          -0.02439606375992298,
          -0.011938621290028095,
          0.11941289901733398,
          -0.05992987006902695,
          0.04755105450749397,
          0.22694440186023712,
          0.11468169093132019,
          0.13079454004764557,
          -0.017024477943778038,
          0.06151193380355835,
          -0.07165881991386414,
          0.21313782036304474,
          0.12760448455810547,
          0.09752927720546722,
          -0.0869169533252716,
          -0.008021309040486813,
          -0.07563759386539459,
          0.06495994329452515,
          -0.02796725369989872,
          0.05280092731118202,
          -0.013779291883111,
          0.008128674700856209,
          -0.07291899621486664,
          0.004495131317526102,
          -0.09217054396867752,
          -0.15179340541362762,
          0.06585517525672913,
          0.1673426628112793,
          -0.05364454537630081,
          0.09007477760314941,
          -0.11044671386480331,
          -0.17113451659679413,
          -0.057578276842832565,
          0.09305830299854279,
          0.048894334584474564,
          0.07961449772119522,
          0.0790962353348732,
          0.20493526756763458,
          0.060878314077854156,
          -0.00730158481746912,
          -0.11672160029411316,
          0.06337914615869522,
          -0.09411485493183136,
          0.04394209384918213,
          -0.12997649610042572,
          0.14082442224025726,
          0.0593159981071949,
          0.07367502897977829,
          -0.06560524553060532,
          0.023189188912510872,
          0.09418075531721115,
          -0.08028539270162582,
          0.06913876533508301,
          0.1288723200559616,
          -0.03763159364461899,
          0.08103388547897339,
          -0.03972046449780464,
          0.003345717675983906,
          0.0935133844614029,
          0.027509983628988266,
          -0.07279343903064728,
          0.03698116913437843,
          0.10746505111455917,
          0.026612497866153717,
          -0.020120888948440552,
          0.044402115046978,
          0.01881534233689308,
          -0.046938713639974594,
          0.03757679462432861,
          -0.21567191183567047,
          0.02776958979666233,
          -0.013418958522379398,
          0.01617623120546341,
          0.04908567667007446,
          -0.06405509263277054,
          0.0027454402297735214,
          -0.19254736602306366,
          0.03780908137559891,
          -0.06860107183456421,
          0.17873194813728333,
          -0.12547311186790466,
          -0.13628186285495758,
          -0.09997951239347458,
          0.08609019964933395,
          0.06601518392562866,
          -0.03300824016332626,
          -0.07876325398683548,
          0.024611251428723335,
          0.04469754546880722,
          -0.0027717093471437693,
          -0.04983234405517578,
          0.05599476397037506,
          -0.09037211537361145,
          0.03411156311631203,
          0.08166031539440155,
          -0.11013249307870865,
          0.06781431287527084,
          0.16986189782619476,
          0.05582928657531738,
          0.06775932759046555,
          0.05623194947838783,
          0.030218224972486496,
          0.27646878361701965,
          0.061637137085199356,
          0.037937406450510025,
          0.06997774541378021,
          -0.10292747616767883,
          0.13610291481018066,
          -0.14690575003623962,
          0.14235931634902954,
          -0.19480803608894348,
          0.08948449790477753,
          -0.028650034219026566
        ],
        [
          0.05882628634572029,
          0.16369135677814484,
          -0.019983429461717606,
          0.09883561730384827,
          -0.08954979479312897,
          0.05716303735971451,
          -0.08324621617794037,
          -0.08341080695390701,
          -0.2343742549419403,
          0.06071300432085991,
          -0.08912820369005203,
          -0.06676717102527618,
          0.017113197594881058,
          -0.03863652050495148,
          0.056929636746644974,
          0.11061019450426102,
          0.017238248139619827,
          0.06281294673681259,
          0.13538023829460144,
          -0.10162550210952759,
          -0.006567943375557661,
          -0.0320168137550354,
          0.1491670161485672,
          0.09985728561878204,
          0.05378759279847145,
          -0.007269242778420448,
          0.06449085474014282,
          0.07639095187187195,
          0.08827967196702957,
          -0.013247372582554817,
          -0.020458798855543137,
          0.13113316893577576,
          -0.055717770010232925,
          -0.0878237932920456,
          0.01492324285209179,
          -0.022538531571626663,
          -0.012746174819767475,
          -0.11241775006055832,
          -0.058005500584840775,
          0.009110686369240284,
          -0.012819487601518631,
          0.04865850880742073,
          -0.1600780040025711,
          0.06548032909631729,
          0.15735255181789398,
          -0.13033880293369293,
          0.08746686577796936,
          0.02414008416235447,
          0.04189509153366089,
          -0.17474497854709625,
          0.1282784640789032,
          -0.00458142813295126,
          0.043081317096948624,
          -0.08417843282222748,
          0.03676517307758331,
          -0.13210704922676086,
          -0.09856995940208435,
          -0.012859167531132698,
          0.09270597994327545,
          0.12336216866970062,
          -0.09631000459194183,
          0.20958669483661652,
          0.07767587900161743,
          0.25124475359916687,
          -0.05011499673128128,
          0.06117488071322441,
          0.042773373425006866,
          0.20797237753868103,
          -0.1514265388250351,
          -0.1435258537530899,
          -0.060525018721818924,
          0.05739162862300873,
          0.06777293235063553,
          0.07102864980697632,
          0.11618147790431976,
          -0.03717559203505516,
          0.11721418052911758,
          -0.06716184318065643,
          0.044441547244787216,
          0.09848270565271378,
          -0.14101636409759521,
          -0.08700912445783615,
          0.017692068591713905,
          -0.05691256374120712,
          0.024305397644639015,
          0.05657863989472389,
          0.1384708434343338,
          -0.04564930498600006,
          -0.04147231951355934,
          0.2429625689983368,
          0.16195251047611237,
          0.04362594708800316,
          -0.09594037383794785,
          -0.009212017990648746,
          -0.05442235246300697,
          0.12589967250823975,
          0.07403736561536789,
          -0.019967112690210342,
          -0.026909736916422844,
          0.14429974555969238,
          -0.03449292108416557,
          6.930815288797021e-06,
          -0.06616812944412231,
          0.025990186259150505,
          -0.0601058229804039,
          0.07564389705657959,
          -0.1833200603723526,
          -0.17117702960968018,
          -0.07343384623527527,
          -0.02613271400332451,
          0.025820910930633545,
          0.02548503503203392,
          0.0031798158306628466,
          0.0973205640912056,
          0.11059780418872833,
          0.05819603055715561,
          -0.06279300898313522,
          0.03109104558825493,
          0.0663192868232727,
          -0.14749743044376373,
          0.1746874451637268,
          0.16590139269828796,
          0.13218754529953003,
          0.1152089312672615,
          0.03858291357755661,
          0.16261005401611328,
          -0.04360329359769821,
          0.09880569577217102
        ],
        [
          0.07213453948497772,
          0.12284311652183533,
          -0.005285391118377447,
          -0.03369465470314026,
          0.06009891256690025,
          0.09569734334945679,
          -0.05553966015577316,
          -0.08986252546310425,
          -0.0303490087389946,
          0.1576709896326065,
          -0.005904812831431627,
          0.06853603571653366,
          -0.04382144287228584,
          -0.05630271136760712,
          -0.09001873433589935,
          0.033090170472860336,
          0.047996845096349716,
          -0.04947049170732498,
          0.12335937470197678,
          0.010864179581403732,
          0.023035697638988495,
          -0.10505189001560211,
          -0.10089872032403946,
          -0.0746740847826004,
          0.049325961619615555,
          0.08888188004493713,
          0.019940881058573723,
          0.053307756781578064,
          0.013343781232833862,
          0.02583821676671505,
          0.04544471949338913,
          0.19164372980594635,
          0.003227473236620426,
          -0.02075084298849106,
          -0.0142121072858572,
          -0.1319231539964676,
          0.01662537269294262,
          0.13162437081336975,
          -0.09527594596147537,
          -0.01269618608057499,
          0.020885197445750237,
          0.21256208419799805,
          -0.04899120703339577,
          -0.08572805672883987,
          -0.025369251146912575,
          -0.04939330369234085,
          0.12699389457702637,
          0.05658992379903793,
          0.023433441296219826,
          -0.11122430860996246,
          -0.05832934007048607,
          0.1355811059474945,
          0.05502108484506607,
          0.19747450947761536,
          0.10844939202070236,
          -0.06520602107048035,
          0.14007404446601868,
          -0.11705970019102097,
          -0.05695676431059837,
          0.040271859616041183,
          0.012441909871995449,
          0.05881715193390846,
          0.23320409655570984,
          0.1809685081243515,
          -0.1376028209924698,
          -0.07399497181177139,
          -0.017701832577586174,
          -0.17616219818592072,
          -0.0651920810341835,
          0.09087961912155151,
          -0.14890699088573456,
          -0.21670877933502197,
          -0.050362661480903625,
          0.06531530618667603,
          0.16205760836601257,
          0.04226071760058403,
          -0.12401191145181656,
          -0.08635382354259491,
          -0.1333616077899933,
          0.09738454222679138,
          0.14734826982021332,
          0.153938427567482,
          -0.016866976395249367,
          0.07822906970977783,
          -0.17833364009857178,
          0.12388557940721512,
          -0.053318943828344345,
          -0.014554087072610855,
          -0.09264761954545975,
          0.07328987866640091,
          -0.0079725943505764,
          -0.07684505730867386,
          -0.10256118327379227,
          0.00848301500082016,
          0.07890386879444122,
          0.025674819946289062,
          0.09630076587200165,
          0.09548626840114594,
          -0.06179151311516762,
          0.13778628408908844,
          0.22040393948554993,
          0.011336192488670349,
          0.1860463172197342,
          0.19772221148014069,
          0.043671928346157074,
          -0.032950982451438904,
          0.0030019241385161877,
          0.025624578818678856,
          0.12236420810222626,
          -0.12572892010211945,
          -0.0240036454051733,
          -0.05072106793522835,
          0.09161745011806488,
          0.11901406943798065,
          0.05872499942779541,
          -0.0387178398668766,
          -0.05677415430545807,
          -0.03161626309156418,
          0.09102184325456619,
          -0.1629774570465088,
          0.02561076171696186,
          0.001600306131877005,
          0.005859449505805969,
          0.03830721229314804,
          -0.06245223432779312,
          0.20283541083335876,
          0.1458442509174347,
          -0.03724776580929756
        ],
        [
          0.028376135975122452,
          0.14620627462863922,
          -0.04927554726600647,
          0.020136013627052307,
          0.07777722179889679,
          -0.05808058753609657,
          -0.15016913414001465,
          -0.05861495062708855,
          -0.13005003333091736,
          0.06913354992866516,
          0.15930265188217163,
          -0.11562519520521164,
          -0.24557943642139435,
          -0.006649318616837263,
          0.14434479176998138,
          -0.0037441574968397617,
          0.10382191091775894,
          -0.0895143449306488,
          -0.013120671734213829,
          0.027270659804344177,
          0.05146200582385063,
          0.007639967370778322,
          -0.023913461714982986,
          0.09281736612319946,
          -0.06658527255058289,
          0.1415681093931198,
          -0.1819021850824356,
          0.10170409828424454,
          0.033955395221710205,
          0.08824893832206726,
          0.03441167622804642,
          0.0005629853112623096,
          0.05980408936738968,
          -0.14429441094398499,
          -0.004140423610806465,
          0.06562516838312149,
          0.05417938902974129,
          0.009348001331090927,
          0.0630834773182869,
          -0.08541170507669449,
          -0.06506719440221786,
          -0.057079147547483444,
          0.0803099051117897,
          0.09389004856348038,
          -0.009732678532600403,
          -0.015937499701976776,
          0.10884455591440201,
          -0.06046122685074806,
          -0.0018886725883930922,
          0.11978591978549957,
          -0.08460570126771927,
          -0.005028280895203352,
          -0.08032188564538956,
          -0.21785205602645874,
          0.10848254710435867,
          -0.009861331433057785,
          -0.016361098736524582,
          -0.02068551629781723,
          -0.10848761349916458,
          0.026429643854498863,
          -0.0792679712176323,
          -0.004708943888545036,
          0.023026740178465843,
          0.01143797766417265,
          0.08971773833036423,
          -0.05563268065452576,
          -0.1447717547416687,
          -0.040457841008901596,
          0.013950090855360031,
          -0.0168383177369833,
          -0.059588633477687836,
          -0.11222431063652039,
          -0.16770698130130768,
          -0.008139919489622116,
          -0.03654852882027626,
          -0.05719303339719772,
          0.15630045533180237,
          -0.1120675653219223,
          -0.1321565955877304,
          0.09088505059480667,
          -0.07893534749746323,
          -0.00636158837005496,
          -0.10379782319068909,
          0.1596849262714386,
          -0.08701743930578232,
          0.08147062361240387,
          0.031974807381629944,
          -0.0005000006640329957,
          -0.04449451342225075,
          0.11563915759325027,
          0.0825536772608757,
          -0.0627925917506218,
          0.09880822896957397,
          -0.00994175486266613,
          -0.050021033734083176,
          -0.04169975966215134,
          -0.06910718977451324,
          -0.051370639353990555,
          0.11295191943645477,
          0.02040824107825756,
          -0.03732947260141373,
          0.02925485000014305,
          -0.0027072406373918056,
          -0.08396963030099869,
          0.010599963366985321,
          0.09224419295787811,
          -0.06226478889584541,
          0.1304885894060135,
          0.06163676828145981,
          -0.017481114715337753,
          0.03838719427585602,
          0.023626282811164856,
          -0.059106986969709396,
          -0.019718220457434654,
          -0.09186476469039917,
          0.04254167526960373,
          -0.04101506993174553,
          0.043558333069086075,
          -0.26807332038879395,
          -0.007612177636474371,
          -0.1881130188703537,
          -0.021625693887472153,
          -0.11930938065052032,
          0.006980083417147398,
          0.0016098279738798738,
          0.1437806636095047,
          0.14323723316192627,
          0.0534137487411499
        ],
        [
          -0.07533755153417587,
          -0.038634441792964935,
          0.03378557786345482,
          -0.04138288274407387,
          -0.10922963172197342,
          0.06206398457288742,
          0.0959230363368988,
          -0.08878462016582489,
          -0.01056959480047226,
          0.13504670560359955,
          -0.006932100746780634,
          -0.05535667762160301,
          -0.04107770323753357,
          -0.03436389937996864,
          -0.09946777671575546,
          -0.00796002522110939,
          0.15119577944278717,
          0.02538403868675232,
          0.05237048864364624,
          0.10546133667230606,
          0.12180302292108536,
          0.06454100459814072,
          -0.1018342450261116,
          0.08640385419130325,
          -0.0028261763509362936,
          0.003503856947645545,
          0.07000772655010223,
          -0.017147958278656006,
          0.08334766328334808,
          0.15314315259456635,
          0.051818154752254486,
          -0.005678165704011917,
          0.054390955716371536,
          -0.10760560631752014,
          0.053539324551820755,
          -0.0036421630065888166,
          0.0986071452498436,
          0.06360238045454025,
          0.08121783286333084,
          0.07735013961791992,
          -0.025461139157414436,
          -0.023313678801059723,
          0.22101372480392456,
          -0.014957756735384464,
          0.18194399774074554,
          -0.04879872873425484,
          -0.03198842704296112,
          0.00547917140647769,
          -0.001048172707669437,
          0.038107648491859436,
          0.017008362337946892,
          0.08342663198709488,
          0.04664768651127815,
          0.12772347033023834,
          -0.016715142875909805,
          0.03259727358818054,
          -0.040256112813949585,
          0.02502831071615219,
          0.033082447946071625,
          0.19776880741119385,
          0.06601514667272568,
          -0.0030513685196638107,
          0.0458628386259079,
          -0.024304991587996483,
          -0.270728200674057,
          0.018783388659358025,
          0.01243162527680397,
          -0.08968450874090195,
          0.006970913615077734,
          0.1836937814950943,
          0.0036836848594248295,
          -0.09427867829799652,
          -0.01928638480603695,
          -0.14073573052883148,
          -0.09641921520233154,
          -0.021010614931583405,
          0.01329683419317007,
          -0.11803681403398514,
          -0.12771537899971008,
          -0.029031820595264435,
          0.03860078379511833,
          -0.09877808392047882,
          -0.07706813514232635,
          0.027774516493082047,
          0.06376291811466217,
          0.07940518856048584,
          -0.004322329070419073,
          -0.11076440662145615,
          0.2219526767730713,
          0.0008056112565100193,
          -0.16722680628299713,
          0.08334808796644211,
          -0.24120701849460602,
          0.030875328928232193,
          -0.007903805002570152,
          -0.05255108326673508,
          -0.04245052486658096,
          0.03805507346987724,
          -0.021037569269537926,
          0.24487993121147156,
          -0.22918161749839783,
          -0.04785870388150215,
          0.1480080783367157,
          0.005171744152903557,
          -0.0974283516407013,
          0.07339636236429214,
          -0.09613027423620224,
          -0.11278463900089264,
          0.05990549921989441,
          0.026169734075665474,
          -0.13621434569358826,
          0.1254374384880066,
          -0.13567209243774414,
          -0.030893556773662567,
          -0.02346671372652054,
          0.04705185070633888,
          0.07842110097408295,
          -0.0943574458360672,
          -0.022504443302750587,
          0.01938345842063427,
          0.0795319527387619,
          0.14451642334461212,
          0.2284066081047058,
          0.05820454657077789,
          0.07313520461320877,
          -0.15143196284770966,
          -0.1036025881767273,
          0.013142216950654984
        ],
        [
          0.25637173652648926,
          -0.06305188685655594,
          0.033698514103889465,
          -0.00877195131033659,
          0.1739942878484726,
          0.018513808026909828,
          -0.02032957598567009,
          -0.14328017830848694,
          -0.04079526290297508,
          0.00394127843901515,
          -0.10960059612989426,
          -0.12767837941646576,
          -0.11462941020727158,
          -0.03536374866962433,
          0.09712328016757965,
          0.06175512447953224,
          -0.0472109355032444,
          -0.022929349914193153,
          -0.19034236669540405,
          0.013963451609015465,
          -0.16379648447036743,
          0.033552639186382294,
          0.07252205163240433,
          -0.14847160875797272,
          -0.06855566054582596,
          0.021268798038363457,
          0.12666915357112885,
          -0.030390528962016106,
          0.060214605182409286,
          -0.04029286280274391,
          0.07380793243646622,
          -0.037220802158117294,
          0.05179179832339287,
          -0.15577994287014008,
          -0.05269457399845123,
          -0.015277545899152756,
          0.01300662662833929,
          -0.021084509789943695,
          0.021970409899950027,
          -0.2474992573261261,
          0.13260997831821442,
          -0.10775609314441681,
          -0.11993806809186935,
          0.06920408457517624,
          -0.11865845322608948,
          0.12108519673347473,
          0.02190147154033184,
          0.02854628674685955,
          -0.08794772624969482,
          0.048503369092941284,
          0.04664621874690056,
          -0.05227212235331535,
          -0.09628243744373322,
          -0.09793146699666977,
          -0.021557820960879326,
          -0.0843859314918518,
          0.013642102479934692,
          0.027142135426402092,
          -0.01302327774465084,
          -0.09121739864349365,
          0.07361846417188644,
          0.1738077998161316,
          -0.1727052479982376,
          -0.004377176985144615,
          -0.013856148347258568,
          -0.043295055627822876,
          0.06502006947994232,
          -0.08762376010417938,
          -0.047352053225040436,
          -0.017222030088305473,
          0.06974611431360245,
          0.027566934004426003,
          0.01698523759841919,
          -0.05776456370949745,
          0.12797734141349792,
          0.059884969145059586,
          -0.22366337478160858,
          -0.13495250046253204,
          0.0853167176246643,
          0.10258263349533081,
          -0.10146158188581467,
          -0.2119578868150711,
          -0.13984186947345734,
          0.06539423763751984,
          0.04176151379942894,
          0.13479694724082947,
          0.015709932893514633,
          0.03331312909722328,
          0.07977057993412018,
          -0.07575301080942154,
          0.027870064601302147,
          0.12055686116218567,
          -0.05083363503217697,
          -0.13860052824020386,
          0.008700278587639332,
          0.004808707162737846,
          0.028101904317736626,
          -0.11579971015453339,
          0.12902753055095673,
          -0.018595540896058083,
          0.10272903740406036,
          0.07499285042285919,
          0.025138776749372482,
          -0.046058833599090576,
          0.11661845445632935,
          -0.06861311942338943,
          -0.06573054194450378,
          -0.037219736725091934,
          -0.03164822235703468,
          -0.14469949901103973,
          -1.773070835042745e-05,
          -0.012419695034623146,
          -0.08974501490592957,
          0.030380820855498314,
          -0.02584986202418804,
          0.08926845341920853,
          -0.14462357759475708,
          -0.09744994342327118,
          -0.03231552988290787,
          0.09792232513427734,
          0.019635872915387154,
          -0.2194221168756485,
          0.02413228526711464,
          0.09526404738426208,
          -0.05458574742078781,
          -0.08882395923137665,
          0.06503820419311523,
          -0.20611949265003204
        ],
        [
          -0.0412198007106781,
          0.07741577923297882,
          -0.20722082257270813,
          0.04042859002947807,
          0.13757143914699554,
          -0.03638333082199097,
          -0.10102881491184235,
          0.020114079117774963,
          0.06699374318122864,
          0.09893708676099777,
          -0.03422609344124794,
          0.0854765996336937,
          0.1489730030298233,
          0.006877150386571884,
          0.0924072265625,
          -0.007824519649147987,
          -0.034989044070243835,
          0.036138392984867096,
          -0.027247479185461998,
          -0.11739091575145721,
          -0.01850241795182228,
          0.051789410412311554,
          -0.047569312155246735,
          0.05475674569606781,
          -0.0037724394351243973,
          0.11536989361047745,
          0.11675316840410233,
          -0.05461867153644562,
          0.04029887914657593,
          0.17776215076446533,
          -0.007859393954277039,
          0.030168764293193817,
          -0.04336950182914734,
          0.048280615359544754,
          0.21098756790161133,
          -0.07439294457435608,
          -0.23298442363739014,
          -0.11856090277433395,
          0.009739243425428867,
          -0.11662740260362625,
          0.09622177481651306,
          0.022232651710510254,
          0.09066952019929886,
          0.04919629544019699,
          0.1493336260318756,
          0.019949231296777725,
          -0.053405098617076874,
          0.005919671151787043,
          -0.005939204711467028,
          0.06552087515592575,
          -0.01934974640607834,
          0.1348370909690857,
          -0.140201136469841,
          -0.1281360685825348,
          0.08550113439559937,
          0.08989907056093216,
          0.07071840763092041,
          0.03310684114694595,
          -0.008103537373244762,
          0.0961737111210823,
          0.054056573659181595,
          -0.07697390764951706,
          -0.00696894945576787,
          0.17213043570518494,
          0.025024887174367905,
          -0.07740727066993713,
          0.10010140389204025,
          0.0364706814289093,
          0.1421632319688797,
          0.022723663598299026,
          -0.027661345899105072,
          0.04780237749218941,
          0.06693582236766815,
          0.09855206310749054,
          0.16897070407867432,
          -0.04008784145116806,
          0.00458809407427907,
          0.1444992870092392,
          -0.050022490322589874,
          -0.1122034564614296,
          -0.020323453471064568,
          0.04874264821410179,
          0.006332863587886095,
          -0.028930846601724625,
          0.04934428259730339,
          0.012089521624147892,
          -0.16448424756526947,
          0.0015083999605849385,
          0.018916409462690353,
          -0.15420342981815338,
          -0.03768618032336235,
          0.1538706123828888,
          0.026895761489868164,
          -0.07868929952383041,
          -0.05495293438434601,
          -0.010964641347527504,
          0.01520620658993721,
          -0.12601560354232788,
          -0.08081158995628357,
          -0.0058419122360646725,
          -0.00917048566043377,
          0.06621433049440384,
          0.0657699927687645,
          -0.14789246022701263,
          0.03719127178192139,
          -0.03349481523036957,
          -0.007836546748876572,
          -0.09901013225317001,
          0.13299836218357086,
          -0.037279944866895676,
          -0.014932803809642792,
          0.08663766831159592,
          -0.0867457389831543,
          0.04129328206181526,
          0.17346195876598358,
          0.0330607034265995,
          0.03103654272854328,
          0.11756178736686707,
          -0.14010325074195862,
          -0.1763087958097458,
          0.0807691365480423,
          0.03949200361967087,
          -0.08543721586465836,
          0.050174932926893234,
          0.05750744789838791,
          -0.08765601366758347,
          -0.0401519313454628,
          -0.04404624551534653
        ],
        [
          -0.020245665684342384,
          -0.07328544557094574,
          0.11454243957996368,
          0.1830289512872696,
          0.026812011376023293,
          -0.02567160874605179,
          -0.01922024041414261,
          -0.14302581548690796,
          0.18735529482364655,
          0.014665640890598297,
          -0.01583254151046276,
          -0.06084594875574112,
          0.053686924278736115,
          -0.08096665889024734,
          -0.002564570400863886,
          0.11213810741901398,
          0.1537940949201584,
          0.07516895979642868,
          -0.06068970635533333,
          -0.040177054703235626,
          0.0250251442193985,
          0.2330455780029297,
          -0.12394741922616959,
          0.09800936281681061,
          -0.030812164768576622,
          -0.05749385803937912,
          0.05878585949540138,
          -0.03507469221949577,
          -0.0657559186220169,
          -0.009075313806533813,
          0.07636068016290665,
          0.10207203030586243,
          -0.07244542241096497,
          0.01871560513973236,
          0.19014786183834076,
          -0.02887367643415928,
          0.01677531562745571,
          -0.07083113491535187,
          -0.03424697369337082,
          0.16693975031375885,
          0.017167240381240845,
          -0.036571063101291656,
          -0.22526521980762482,
          -0.04492197930812836,
          0.048956867307424545,
          0.02104600891470909,
          -0.058869753032922745,
          -0.09519566595554352,
          -0.02682396024465561,
          0.0001776405842974782,
          0.014598524197936058,
          0.07716774940490723,
          -0.04880768060684204,
          0.06777171790599823,
          -0.03966807946562767,
          0.03299502283334732,
          0.03640465438365936,
          0.000696755712851882,
          -0.022852260619401932,
          -0.07304595410823822,
          0.15196843445301056,
          -0.08820416778326035,
          0.04533484950661659,
          -0.02377447672188282,
          0.07386329770088196,
          0.04619127884507179,
          -0.21241101622581482,
          -0.10638196021318436,
          0.08812613040208817,
          0.03291238844394684,
          0.05488048121333122,
          -0.11001591384410858,
          -0.009152254089713097,
          -0.07194913923740387,
          0.07945114374160767,
          -0.15253818035125732,
          -0.02502875216305256,
          -0.017473988234996796,
          -0.10356659442186356,
          -0.04406913369894028,
          -0.07277089357376099,
          -0.013651805929839611,
          0.049746494740247726,
          -0.09536684304475784,
          -0.13530085980892181,
          -0.08042912185192108,
          0.11702370643615723,
          -0.016840694472193718,
          0.06416771560907364,
          0.060659632086753845,
          -0.04197143763303757,
          -0.05015037581324577,
          -0.02663007751107216,
          0.1686413288116455,
          0.007070919498801231,
          0.03812997415661812,
          -0.08745402097702026,
          -0.057155270129442215,
          0.007370887789875269,
          -0.00996348075568676,
          0.08168244361877441,
          -0.0037358033005148172,
          -0.0863424763083458,
          0.03239625319838524,
          -0.06892893463373184,
          0.05586491525173187,
          -0.011664614081382751,
          -0.1360097974538803,
          -0.01515144482254982,
          0.04812508448958397,
          -0.09553228318691254,
          0.1386207491159439,
          -0.019533947110176086,
          0.13602809607982635,
          0.03357238322496414,
          0.013568024151027203,
          -0.027210867032408714,
          0.06798164546489716,
          -0.18578976392745972,
          0.068837970495224,
          -0.18215008080005646,
          0.045572273433208466,
          -0.044156983494758606,
          0.0260310098528862,
          -0.09674809128046036,
          0.02145390398800373,
          -0.05797603353857994,
          -0.08582751452922821
        ],
        [
          -0.2251412272453308,
          0.03206421062350273,
          0.05508461967110634,
          -0.018969129770994186,
          -0.15949735045433044,
          -0.11704713851213455,
          -0.09207864105701447,
          0.0015891820657998323,
          -0.02361058071255684,
          -0.054448410868644714,
          0.05408760532736778,
          -0.04124585539102554,
          -0.00981223490089178,
          0.028927098959684372,
          -0.07217556983232498,
          0.1319371610879898,
          -0.1566222906112671,
          0.17605862021446228,
          0.16674137115478516,
          0.05145476385951042,
          0.2542971074581146,
          0.1607152372598648,
          0.0452762208878994,
          0.18623395264148712,
          0.0057847038842737675,
          -0.002259643515571952,
          0.19589243829250336,
          0.005813987925648689,
          0.14585497975349426,
          -0.12978696823120117,
          0.08307019621133804,
          0.017196936532855034,
          0.07162346690893173,
          0.12318084388971329,
          0.15013696253299713,
          0.09489643573760986,
          -0.15916644036769867,
          -0.03696401044726372,
          0.16319026052951813,
          0.11628952622413635,
          0.06081476807594299,
          -0.12644292414188385,
          -0.034336380660533905,
          0.0004286107432562858,
          -0.04718773066997528,
          -0.029528332874178886,
          0.10931871831417084,
          0.04553183540701866,
          -0.05585175380110741,
          0.03511471673846245,
          0.2013264298439026,
          -0.041065920144319534,
          -0.005179585888981819,
          0.009397001937031746,
          0.13763436675071716,
          0.05413132533431053,
          0.040790095925331116,
          -0.06192629039287567,
          0.0014800499193370342,
          -0.09490308910608292,
          0.09707729518413544,
          0.00166828534565866,
          0.0944966971874237,
          -0.031708452850580215,
          0.028166254982352257,
          -0.004718438256531954,
          0.05859662592411041,
          -0.022805213928222656,
          0.00872365664690733,
          0.11651074886322021,
          -0.1812106966972351,
          -0.03993142768740654,
          0.07347666472196579,
          -0.025041326880455017,
          -0.1964375525712967,
          -0.06606938689947128,
          -0.029394539073109627,
          -0.019032631069421768,
          0.09453459084033966,
          0.04844605177640915,
          0.027630094438791275,
          -0.17325372993946075,
          -0.06146997958421707,
          0.014370479620993137,
          -0.03716213256120682,
          0.05259920656681061,
          -0.13017943501472473,
          0.07794138044118881,
          -0.11104778945446014,
          -0.028973957523703575,
          -0.048482153564691544,
          0.09845615923404694,
          -0.01915888488292694,
          0.02091206982731819,
          -0.07149916887283325,
          0.13614241778850555,
          0.18441863358020782,
          0.07097380608320236,
          0.024607237428426743,
          0.05565155670046806,
          0.014440188184380531,
          -0.006973929703235626,
          0.0155791612342,
          -0.11279653012752533,
          0.04016689583659172,
          0.11313706636428833,
          0.07706248760223389,
          -0.038483116775751114,
          0.10075392574071884,
          -0.05888204276561737,
          -0.009118686430156231,
          -0.03797326236963272,
          -0.023823263123631477,
          0.04646897315979004,
          -0.10370191186666489,
          0.04471702501177788,
          0.02258751355111599,
          -0.06129668280482292,
          0.0975712463259697,
          0.05149206891655922,
          0.08025389909744263,
          -0.07297955453395844,
          0.02906958945095539,
          -0.046420250087976456,
          -0.0046118623577058315,
          0.055320024490356445,
          0.1726488620042801,
          0.09302723407745361
        ],
        [
          -0.07196231186389923,
          0.04491348937153816,
          0.08736785501241684,
          0.04298651963472366,
          -0.11587466299533844,
          0.0408378504216671,
          0.0907970741391182,
          -0.036346275359392166,
          -0.005834599956870079,
          0.0404864177107811,
          0.07394332438707352,
          0.008365877903997898,
          -0.14918936789035797,
          -0.020745251327753067,
          0.017027929425239563,
          -0.1646626591682434,
          0.007926717400550842,
          0.09352967143058777,
          -0.025973297655582428,
          0.09784048050642014,
          0.10104319453239441,
          -0.02530977688729763,
          0.16220685839653015,
          -0.07374860346317291,
          0.09547518193721771,
          -0.0076638879254460335,
          -0.016344232484698296,
          -0.069954514503479,
          0.04077468067407608,
          0.026309311389923096,
          -0.03409992903470993,
          0.044942568987607956,
          -0.05381106957793236,
          0.043908629566431046,
          0.033185627311468124,
          -0.0947912186384201,
          0.0018151926342397928,
          0.16805805265903473,
          0.04127327352762222,
          0.11557798087596893,
          0.04955815151333809,
          -0.016088515520095825,
          0.09327805042266846,
          -0.0401063896715641,
          -0.012918025255203247,
          0.18413837254047394,
          -0.11279375106096268,
          -0.20096707344055176,
          -0.13928909599781036,
          -0.00794957298785448,
          0.0976896807551384,
          0.14821884036064148,
          0.09262637794017792,
          -0.015051188878715038,
          0.006571752484887838,
          0.058725956827402115,
          -0.07748720049858093,
          -0.05212809145450592,
          0.02245233952999115,
          -0.04322618991136551,
          -0.038641590625047684,
          -0.010239943861961365,
          0.22711944580078125,
          0.05239681899547577,
          -0.1413947492837906,
          -0.06562702357769012,
          0.154078871011734,
          -0.004824582487344742,
          -0.042755477130413055,
          0.12678928673267365,
          0.07296141982078552,
          0.19989028573036194,
          -0.013393273577094078,
          0.01449667103588581,
          0.11868143081665039,
          -0.14017923176288605,
          -0.06644158810377121,
          -0.01401723362505436,
          -0.05372390151023865,
          -0.12437304854393005,
          -0.02894851751625538,
          -0.06098099797964096,
          -0.06411997228860855,
          0.014247140847146511,
          -0.008620408363640308,
          0.15796683728694916,
          0.14294788241386414,
          -0.1642025113105774,
          0.13550014793872833,
          0.0822250247001648,
          0.11393976956605911,
          0.00890626572072506,
          -0.1779571771621704,
          0.020066801458597183,
          0.20183202624320984,
          0.05572274327278137,
          0.18872368335723877,
          -0.13122615218162537,
          0.021869206801056862,
          -0.07143209129571915,
          0.0536058284342289,
          0.02784397453069687,
          -0.05435759574174881,
          0.12608879804611206,
          0.05130760744214058,
          0.09404806792736053,
          0.003286152146756649,
          -0.05733605846762657,
          0.16052928566932678,
          0.17231416702270508,
          -0.033759139478206635,
          0.025967292487621307,
          0.00045850322931073606,
          0.23385712504386902,
          0.11683133989572525,
          0.12159950286149979,
          0.13525637984275818,
          0.023654280230402946,
          -0.08587890863418579,
          0.18663302063941956,
          0.03682756796479225,
          0.1339801698923111,
          -0.21911951899528503,
          -0.026325980201363564,
          0.04485126584768295,
          0.15068751573562622,
          0.029040982946753502,
          0.1284233182668686
        ],
        [
          -0.05048748105764389,
          0.03594786673784256,
          0.07778102904558182,
          0.07630421966314316,
          0.031339749693870544,
          0.017337558791041374,
          -0.008837391622364521,
          -0.1030079573392868,
          -0.03382505103945732,
          -0.1314127892255783,
          -0.09444700926542282,
          -0.041290201246738434,
          -0.06298759579658508,
          -0.026738902553915977,
          0.008276584558188915,
          -0.03485758602619171,
          0.05230843648314476,
          0.0627981647849083,
          0.0124135110527277,
          0.0037822378799319267,
          0.018498599529266357,
          0.08055903762578964,
          -0.04471438378095627,
          0.01708763837814331,
          0.12717726826667786,
          -0.055666182190179825,
          -0.29288893938064575,
          -0.14639350771903992,
          0.07430791854858398,
          -0.08114386349916458,
          -0.09504039585590363,
          -0.13370615243911743,
          0.001341944094747305,
          -0.03345952555537224,
          0.14882613718509674,
          0.021282702684402466,
          0.09107376635074615,
          -0.0856909304857254,
          0.034142885357141495,
          -0.049652256071567535,
          0.13001397252082825,
          0.046690937131643295,
          -0.1042032390832901,
          0.0764482170343399,
          -0.10978104919195175,
          0.028285494074225426,
          0.06447408348321915,
          0.1864427626132965,
          0.20636986196041107,
          -0.07234521955251694,
          -0.0923045352101326,
          -0.0997573733329773,
          0.0003076329012401402,
          0.1526409089565277,
          -0.07838857173919678,
          -0.015345346182584763,
          -0.09019674360752106,
          -0.012351022101938725,
          0.011461303569376469,
          0.04723818227648735,
          0.16293714940547943,
          -0.10965624451637268,
          -0.13820797204971313,
          -0.12351196259260178,
          0.08731991052627563,
          -0.056556254625320435,
          -0.0869927853345871,
          0.11901096254587173,
          0.03522986173629761,
          -0.0765572264790535,
          -0.18115203082561493,
          0.2906084656715393,
          -0.05543159320950508,
          -0.09999725222587585,
          0.03730875626206398,
          0.012530474923551083,
          -0.05421093851327896,
          0.0209964532405138,
          -0.03411553055047989,
          0.16938798129558563,
          -0.10657928884029388,
          0.03885535150766373,
          0.002664920873939991,
          0.03933916613459587,
          0.277769535779953,
          -0.055167749524116516,
          -0.16182953119277954,
          0.04233909025788307,
          0.04901833459734917,
          -0.1501096934080124,
          -0.04752939194440842,
          -0.10258109122514725,
          0.08064382523298264,
          -0.07344944775104523,
          -0.01150254625827074,
          -0.13630761206150055,
          0.1542721390724182,
          -0.047748710960149765,
          -0.10252518206834793,
          0.10519113391637802,
          0.009571623988449574,
          0.014784040860831738,
          -0.09668707102537155,
          -0.030231699347496033,
          0.10180393606424332,
          -0.20551733672618866,
          0.08490163832902908,
          0.02342604100704193,
          -0.05637955293059349,
          0.12642692029476166,
          0.14753735065460205,
          -0.09815678745508194,
          -0.12944933772087097,
          -0.0019492146093398333,
          0.032357458025217056,
          -0.037763647735118866,
          -0.12385387718677521,
          0.04540746659040451,
          -0.20180101692676544,
          0.04881087690591812,
          -0.057841699570417404,
          -0.15766102075576782,
          -0.08858763426542282,
          -0.10512372851371765,
          -0.1038433089852333,
          -0.16911694407463074,
          0.015880677849054337,
          -0.009523607790470123
        ],
        [
          -0.004459063522517681,
          0.20529167354106903,
          0.10589658468961716,
          0.20972704887390137,
          0.02341880463063717,
          -0.04193921387195587,
          0.14904296398162842,
          0.12478876858949661,
          -0.10114164650440216,
          -0.031556833535432816,
          0.02699277363717556,
          0.09797600656747818,
          0.13598966598510742,
          0.0898791253566742,
          0.1399017870426178,
          0.03294455260038376,
          0.06880378723144531,
          -0.08459388464689255,
          0.09945455193519592,
          -0.07796593755483627,
          0.07995759695768356,
          -0.01253062579780817,
          -0.07005739212036133,
          0.06717018783092499,
          0.0729009211063385,
          -0.028135210275650024,
          -0.005970549304038286,
          -0.03332959860563278,
